digraph Tree {
node [shape=box, style="filled, rounded", color="black", fontname=helvetica] ;
edge [fontname=helvetica] ;
0 [label="1 <= 293909.0\ngini = 0.89\nsamples = 11\nvalue = [1, 1, 1, 2, 1, 0, 1, 2, 1, 3, 0, 0, 2, 1\n0]", fillcolor="#3c39e512"] ;
1 [label="gini = 0.0\nsamples = 1\nvalue = [0, 0, 0, 0, 0, 0, 0, 0, 0, 3, 0, 0, 0, 0\n0]", fillcolor="#3c39e5ff"] ;
0 -> 1 [labeldistance=2.5, labelangle=45, headlabel="True"] ;
2 [label="4 <= 11459.0\ngini = 0.89\nsamples = 10\nvalue = [1, 1, 1, 2, 1, 0, 1, 2, 1, 0, 0, 0, 2, 1\n0]", fillcolor="#7be53900"] ;
0 -> 2 [labeldistance=2.5, labelangle=-45, headlabel="False"] ;
3 [label="gini = 0.0\nsamples = 1\nvalue = [0, 0, 0, 0, 0, 0, 0, 0, 0, 0, 0, 0, 2, 0\n0]", fillcolor="#e539c0ff"] ;
2 -> 3 ;
4 [label="gini = 0.88\nsamples = 9\nvalue = [1, 1, 1, 2, 1, 0, 1, 2, 1, 0, 0, 0, 0, 1\n0]", fillcolor="#7be53900"] ;
2 -> 4 ;
}